{"Layers":[{"Bias":[[-0.0008587022620293798,0.0018916189575358385],[-0.0009739213169391343,0.010659270293926427],[0.0004113300900486684,0.0032931489657297484],[0.0012411164518979015,-0.0006176043798194763],[-0.001975683236552831,-0.00020107676363226168],[0.002651119061092554,0.001105109181958347],[-5.2668528453719984e-05,-0.0009953941412685213],[0.0031859626154303266,9.661377712249437e-05],[-0.0022796828004557914,0.0036926064404805207],[-0.00014437548298966023,0.0008735587141526664],[0.0008350985025690382,0.00014798217402397707],[-0.0036689392070302774,0.005477392872642438],[0.0008744022680223676,0.0025464800818240834],[-0.0012465806627461602,0.0006550604677057875],[0.0016142347633207068,0.0020667727875006746],[0.003149122197336506,-0.002459988227868236],[0.0003133026880793652,0.002997743020568458],[-9.485990835581587e-05,0.0012994695426170612],[-0.0011016774635441476,0.000332912229791882],[0.00040606567693490954,-0.0021236960021232174],[-0.0001195026964795619,-0.0002751466449916351],[-0.0007959845840378239,0.0016764568051235414],[0.00037330034142202284,0.001472608818808791],[0.001685426599391924,0.00206811754141127],[0.0007324063102120762,-0.006598117909666836],[0.0028900450487625187,0.001303483581056938],[-0.0003431751239076874,0.003999142007034353],[-0.001975357438973466,-0.0036802839508211426],[0.0004306855885668586,-0.0025149682860512363],[0.0007692168196652654,-0.0018379156794720289],[-0.0006524756873123433,0.00306115149970188],[-0.001524174556978408,-0.002295097945630105]],"Inputs":16,"Name":"FullyConnected","Outputs":32,"UseBias":true,"Weight":[[[-0.02642423113772515,-0.05760879616860624],[0.03712281513091496,-0.048278854973917394],[0.13566634851298154,-0.03930944090512211],[-0.20454215886174354,0.018825188858795805],[0.02520533550801563,-0.04125885474193711],[-0.022317683298179264,-0.0705305588935687],[0.02447911934328487,0.03557761492077052],[0.03139425785219557,-0.021970259242690998],[-0.09566955538552581,-0.22410045143778476],[-3.7834050012114557e-06,-0.0694500659593698],[-0.002949533418185675,0.0028868113249319108],[-0.006340961167066188,-0.13152254798149512],[0.006600959400155992,-0.30394029954884133],[0.029742894384102124,-0.026249640016812348],[0.007679321476819476,-0.10783162110170015],[0.008551902019948276,-0.06833950875056877],[-0.04330652429004868,0.02919493228902942],[-0.013241524807581876,-0.09241027086746507],[0.014354763557088155,0.13450686976465318],[-0.014976817555692867,0.12731891134306778],[0.0012539535598307947,-0.006762525724971357],[0.012890676232339138,0.121285378531937],[-0.019353365099262828,-0.02718139491498946],[-0.03594259994008715,0.14770194877782716],[0.08577735303453847,-0.154418613577445],[-0.011571823244698623,0.30863653945544456],[-0.04679088174687726,0.17582852424679093],[-0.053464975298371825,0.16177541642885115],[0.021524743435994476,0.032199889303569734],[-0.07035381687052393,-0.08766780181324105],[0.003700284404901959,0.27048881948103715],[0.0033523436863134386,0.18699157982157874]],[[-0.013287195152516737,-0.07242142010915104],[-0.03746146353514934,-0.2235252815402821],[-0.14834046990519892,0.1319792745171195],[0.142959615430496,-0.00976918844581174],[-0.008046441204609464,-0.03898436070586114],[0.025746277879985253,-0.0017200350098257845],[-0.013881546427486386,-0.002057618848488034],[0.006914551793073036,-0.038609488444546564],[0.05388489468827595,-0.06526730270410813],[0.05425303310681163,-0.07389262848328242],[-0.004271537925897244,-0.023634466036991333],[-0.0024079015746095596,-0.0405971715181394],[0.022642074852617895,-0.3123469487509855],[-0.014004584647969956,-0.030934945514846907],[-0.048701256221645436,-0.016601460215378866],[0.014499821491158882,-0.09933074969972806],[0.007908246766040813,0.05604609628243636],[0.1450597207024678,-0.10454121344061179],[-0.06207865074711425,0.15301583045139144],[0.007205560043760342,0.08899013349916761],[0.03577755532320589,0.1088422945287098],[-0.0483888938415155,-0.12262938060405196],[0.0076888998483585535,-0.07749675301165508],[0.06990557375252225,0.06339453414584756],[-0.06620178914271564,-0.15263673364055272],[0.018466324149213627,0.36847242237120037],[0.02222604796510188,0.19556963043271908],[0.03756728702602952,0.07567841483144627],[-0.10796182529817322,0.022641712674824895],[0.021850961703617878,-0.1960842722168905],[0.006999666657426696,0.22135699396207043],[0.010905138377860654,0.09267293873045238]],[[0.000567645583535827,-0.09015845469013024],[0.03227847143336667,-0.1959490565339017],[0.06030846586458441,0.11859049029103626],[-0.033192413102909296,-0.006811828639458651],[-0.023986113251388337,-0.06727392729841426],[0.0021888466106196013,0.09340020688525458],[0.01867763717304228,0.00031767493426315506],[-0.03210850680949928,-0.09395187321539679],[-0.0061099855593150145,0.0409434022541757],[-0.010323653247067337,-0.07953924678212587],[-0.007007172560538153,-0.01973960114135115],[0.01274380204986,0.04383330121111992],[-0.006349962881251525,-0.18168497711893736],[-0.003186653534450513,-0.05912927323881651],[0.014884348943319988,0.017232897591742714],[-0.0015498711690310422,-0.11934399791419255],[0.016119841911251286,0.015836962530017262],[-0.2645387705892718,-0.018380316450582617],[0.03180305129326367,0.06676465567196505],[0.01571922396042585,0.05742523052709192],[-0.09419472444074678,0.20722461157258182],[0.07898917271232526,-0.29969813176732435],[-0.008337917949442209,-0.10547675753479796],[-0.09316079423391227,-0.17519395242346175],[0.02708028541193217,-0.07899216604369176],[0.04354395419836664,0.3622449885284033],[0.009305936468691765,0.16626057638251912],[-0.0018927451634170062,-0.0038947849247565596],[0.11355457505365449,0.10401385844113628],[-0.02849862625559089,-0.17403993448209995],[-0.09237164212263382,0.07220440777682575],[-0.048348712660624335,0.05019499288737119]],[[0.0009402683358764833,-0.09980037644866445],[-0.002363064764779569,-0.11976880307484761],[0.017807497206729618,0.11235291388729678],[-0.011893902542479552,-0.011014394609127674],[0.029708416169830425,-0.09892268630700994],[-0.032356256689108125,0.13376987203379734],[-0.025789985994454367,0.062333723700038784],[0.02935433739243532,-0.15758175059706342],[-0.0159160226123122,0.11170087870088427],[0.014206602302631445,-0.05605488613257297],[-0.00839008150688831,0.02362090466196676],[-0.005564496252226314,0.0865340749718418],[-0.036625009487471286,-0.03179620455938418],[0.007452691989161172,-0.07938000647985265],[0.02647982350564062,0.014154300138244012],[0.011105409190545491,-0.06148684519287055],[0.05738736161220395,-0.027028369330619726],[0.29437641151007754,0.20529339455649345],[0.00461060555085151,0.0224797000155721],[-0.031698053956699064,0.04568215046028745],[0.03606432961668661,0.22030435952863717],[-0.037232550756757576,-0.2416695414104701],[-0.004993991122306572,-0.14095464993506968],[0.0034753304080333757,-0.3337377346360309],[0.04589703558252803,-0.06787225855063041],[0.010614058213693649,0.22416573481176794],[-0.07542980890739694,0.11232360166209886],[0.012378846781609932,-0.02708286122316015],[-0.008571463409658942,0.18294832579883386],[0.038492614558727975,-0.14980203176537443],[0.11669646079718662,-0.07907879029805172],[0.004593589171299994,0.04096592752047285]],[[-0.002861907886235099,-0.11851332801673191],[-0.02107529461149037,-0.003342886782478968],[-0.05384778514015093,0.0822777358922582],[-0.011254469705084745,0.04926915231304939],[0.02604335746074295,-0.08812784567809949],[-0.0032193658814452597,0.09080753581916151],[0.018462192962565828,0.2399812665977867],[0.036016940049876794,-0.17695097575902463],[0.02223323391882614,0.11938053278421469],[-0.019559492646128513,-0.009864127148346969],[0.024083152932894536,0.16620521293182922],[0.008117064007353824,0.15030033719881442],[0.05765266641490735,0.015762294613764643],[0.006830221564405927,-0.1000639365057946],[-0.04226904250798707,0.006631476784196261],[-0.019064914736447437,0.10659612308169535],[-0.16477902404360154,-0.004194316232442752],[-0.23424257745534977,0.2540204359908764],[-0.05947086417814202,-0.0014537185040242708],[0.0054736726017490835,0.1193744340664723],[-0.00817387610724996,0.20702464131091947],[-0.0511242611135256,-0.12083684952861927],[-0.015507863013183324,-0.1616933509940965],[0.022483112915553227,-0.3751845011282474],[-0.12155391927027143,-0.023855672875391087],[-0.006898510032646735,-0.03275087236446739],[0.09878883515109588,0.0938754800005544],[-0.013401353397143961,-0.08838457984090217],[-0.03038892989872344,0.18699829827530845],[-0.009251632951866678,-0.06658662983936889],[-0.07203780027618042,-0.12316838405676911],[0.01863692424710074,0.05356144567834797]],[[0.009981336522619535,-0.12336030394939415],[0.03127847219746178,0.04676765241357674],[0.003935377663388473,0.05171555626591798],[0.02088263383431616,0.08480764982621572],[-0.017826793300804493,-0.07558568562829313],[-0.013148705555273239,0.03449688011304311],[0.0073452339489457645,0.2934744586171838],[0.0029108450608879167,-0.176153377958888],[0.0011334767228245032,0.09386474884175575],[-0.011777061474053978,0.030374707019156212],[0.00070796975132862,0.23741629783480878],[-0.0025375874681370044,0.16271072103049286],[-0.03532780406859951,-0.0009624282620378193],[-0.034673021509817215,-0.07503872050063934],[-0.01806400933049242,-0.016951303875555105],[-0.010452141923705858,0.238617374401865],[0.34263146978388154,0.041451069668728004],[0.032183265007303584,0.15619318575242397],[0.03488034247663035,0.036765109935693284],[0.012745319877733089,0.10331333437644527],[-0.04084795474920911,0.029052717731342253],[0.03055887751522128,-0.09454949429146525],[0.007632158645939717,-0.19366828790857385],[-0.027720491725048313,-0.2252955842980601],[0.08322739132565703,-0.045029657879311694],[0.03542485256813914,-0.19291430206180052],[-0.06230818799938815,0.01730690503020371],[-0.02496688515437191,-0.18304637900322895],[0.06890876528000782,0.007117603975396931],[-0.002744686805317864,0.027461283295210262],[-0.017837176299893807,-0.17615805358714015],[-0.01221577267557405,0.034279631374215906]],[[0.013091601898819052,-0.12554003223373225],[0.007762665799560832,0.030279944068561236],[0.06394088242576713,0.027488541083809517],[0.0028389436818453064,0.04838194854564036],[-0.005151845539666066,-0.027444901261298945],[-0.0132301990260033,0.04764843255270121],[-0.045775975745058664,0.2921403493575014],[-0.06403206278861036,-0.07491831558576616],[-0.004039009982978577,0.07112089829431427],[0.005910557962386086,0.02744484363297504],[-0.04806208085174771,0.2571562921940203],[0.005888943950287581,0.1425699257772349],[-0.003146149003928036,0.0026587295724029643],[-0.007765597020895793,-0.0298372071365766],[0.05356800861987396,-0.026093803035891205],[0.09280621383643008,0.25585767147046273],[-0.3113173742887541,0.02073519005841127],[0.01181960001492553,0.052034665049518425],[0.0008441645277450763,0.11389143535603165],[-0.023884534991549605,-0.05350042963215936],[0.022454693025636352,-0.18854707990298986],[-0.0038043974824108896,-0.1031595726726459],[-0.0027245597776660428,-0.23014330976014746],[0.018695904643718446,-0.04311301325519924],[-0.038874171507347795,-0.02861704388300893],[-0.025872342093398164,-0.21319606439746105],[-0.0016882741962042714,-0.14030027167724846],[0.01926879252035588,-0.20196060413111397],[0.027298546778612865,-0.16022138283368226],[0.0256228233070995,0.09506435517708091],[0.06428123992690363,-0.14426982050991463],[0.019378094132090302,-0.10387266739277567]],[[-0.002687943335272678,-0.12099192324862976],[-0.026020337261198113,0.005873086817283521],[-0.0675252117750945,-0.012036930101635434],[-0.04752420267902519,0.05862845687479067],[0.03289844806262613,0.1384972625261434],[0.0017988365703010176,0.07939999601959263],[0.038305609508363085,0.12640402996324543],[0.10341917261734158,0.017283809679203194],[-0.012306154060773499,0.05328840767469286],[-0.04128129150725715,0.020419317269868734],[0.06470821664776828,0.03999809338025937],[0.005726649088413556,0.08854599417874362],[0.028952351294472645,0.028180348117260938],[0.012905550822644928,-0.041438514458861285],[-0.03573340824133233,0.008537581430588862],[-0.16553634775560863,0.1932017845863744],[0.11678665291880594,-0.0038922454209298963],[0.0051330020452805755,0.009824879781275313],[-0.0017403822175475997,0.12517822230437067],[0.0639503093701799,-0.24762062921632844],[0.006637605085720805,-0.2726934087351088],[0.017793382618091696,-0.07502577815883538],[-0.09234835327390173,-0.24397574907640687],[-0.025653509911077,0.014877683910573052],[0.023991026231374554,-0.01275407760200393],[-0.01515346124950621,-0.19118388813150836],[0.021820478314875585,-0.202861027921152],[0.0090320256130198,-0.19704064823531187],[-0.06108000369628889,-0.20631748458005594],[0.016373971931302772,0.11360042054946187],[-0.042825920725162094,-0.13296109052298624],[-0.02158785051017289,-0.22124041711871506]],[[-0.013192655407949007,-0.11803379224472704],[0.011912125165347218,-0.029622303656983966],[0.017921798092760153,-0.022807858040182486],[0.032531759132086446,0.04529537256180321],[-0.05289437697020727,0.28003362240060126],[0.030812496605990076,0.1413388200135729],[0.003208249607049978,-0.025609017822946827],[-0.09539448053192455,0.13365978834114492],[0.034451711563923265,0.03487676153199036],[-0.012006745704956344,0.036778890103471615],[-0.12145541276128077,-0.24302311768421941],[-0.005877738365032526,0.10545477505246753],[-0.05446100555571619,0.13988833397722134],[0.022453164381040055,-0.05002793859534406],[-0.026149455969264303,0.03138787096473028],[0.15681587085676318,0.08712043395054318],[-0.002705493942809779,0.000740796333727459],[0.019724834603958203,-0.01708693749646868],[0.00030254073555579543,0.06623677206187677],[-0.0633753618575398,-0.2640892441926659],[-0.017123970419610005,-0.2262269072811907],[-0.002634607807978558,0.04088174566790382],[0.14133327263571815,-0.1366831223728265],[0.01983057549650107,0.04447043772473973],[-0.015244644779816054,-0.027357476636969722],[-0.004244084156582155,-0.20374544521592572],[-0.030019574138076432,-0.17448417831984112],[-0.018833577471257912,-0.15920132858507177],[0.03841163289211743,-0.08742489379503456],[-0.03792199163772878,0.11270786677088011],[0.007538700742179823,-0.09697496586783935],[0.01068285009309853,-0.23103630272049122]],[[0.04824217005630863,-0.14841410855857715],[-0.033716594035985085,-0.06428552531761401],[0.018286209132589687,-0.02514697087242504],[0.0045263673923130405,0.06225007526809726],[-0.008488659879153104,0.32178473269256574],[-0.10307200043413862,0.08670155983331479],[-0.05550842743104029,-0.08688074582928347],[0.019301869231039097,0.2493794005321756],[-0.05904127723218164,0.025050908078269103],[0.02461275705028473,0.06962671647486532],[0.09459972469508073,-0.2848084789411131],[0.017571736096457215,0.1627802725871226],[0.04703434764965424,0.24273867567890528],[-0.11158639662654346,-0.025563744440985806],[0.06909974309971798,0.07306866517658059],[-0.0672516113789821,0.022297405186622328],[-0.03126320834256743,0.0008169171770316583],[0.014565588317713858,-0.035476800651290386],[-0.02589798804112903,-0.03394027258141043],[0.03703441862749808,-0.08566237713248648],[0.011531526065220114,-0.11585750038521625],[0.039860422602700896,0.14060499524070164],[-0.14585388463713705,0.13933384892293382],[-0.002345423327049773,0.07426068342299182],[-0.0026687846748639347,0.07624934128925871],[0.0013383290584701622,-0.18266147606794636],[0.005032808980570821,-0.11595361936601219],[0.03535379578787887,-0.11515377022325107],[-0.011710978882893073,0.03799083144230466],[0.017835712357895637,0.13367154596277714],[0.019685243128477768,-0.038289767410486994],[-0.07469121888585921,-0.19091010267610797]],[[0.02783453209792467,-0.10156827205206968],[0.005527362112364659,-0.06879085163417288],[-0.009011501529938909,0.017817407351431315],[-0.046877509768364904,0.06414201114320445],[0.057716296540707666,0.09740467794595412],[0.14410278572417667,-0.06746269395932496],[0.08086003464842574,-0.18957290917997546],[0.004089555696414572,0.2659046008595746],[0.04469352196049005,0.01937669859033524],[-0.02455534904437477,0.1368711928358737],[-0.02102698505492367,-0.1618533958515845],[0.0023287381273826985,0.18169380505215108],[-0.005650065827514639,0.24384040575824886],[0.17615497353294254,0.13314335131248703],[-0.08881667829053744,0.08302598862149752],[0.02716686442389386,-0.0513120760285611],[0.009417397425740187,0.0013933563989219032],[0.00147402960970548,-0.08063958606290748],[0.041319964869457576,-0.13757157496496453],[-0.020447829839205303,0.05553809662916841],[0.010135948317691032,0.009858758272733381],[-0.01026848301649547,0.1737290118886446],[0.0828054509502457,0.28174545175292504],[0.005762538826057061,0.10972628019704714],[0.02297949769873441,0.1521433935510321],[0.006816674663176143,-0.18770739016393712],[0.03282646842443963,-0.09842667602981749],[-0.009742515077953292,-0.011759353916986683],[0.0022617763902497106,0.014955752558353618],[0.027173888381001893,0.11199516825700126],[-0.017620330061292384,-0.00842460312855512],[0.1017922601520297,-0.1645803926857232]],[[-0.05893210268789691,0.17359325086087993],[0.03379099089130914,-0.014665294694950924],[-0.0026871089136428017,0.031678300737271084],[0.04066954733917624,0.007295737751212729],[-0.056983174264763424,-0.12522629409503389],[-0.12892679217707964,-0.1560624612737561],[-0.003046751266972774,-0.23521993598421143],[0.008350296489431473,0.2032654881762469],[-0.02224325338793514,0.043023192421168296],[-0.029597939556272573,0.13602157092509135],[-0.032091936136438605,-0.07679480692032506],[-0.0017914158284520717,0.12415737322461266],[-0.02362536418475803,0.15622691211976045],[-0.16480021412421392,0.3021154860302868],[0.04920265411702481,0.09608040665758007],[0.0007145197501426478,-0.05797668439008512],[-0.006032411278360111,-0.003756872024289508],[0.00235039243590102,-0.09381462268338528],[-0.13024211337930935,-0.20472773436117278],[0.002782381192939294,0.0841499028797857],[-0.014815702153201691,0.05534058933148014],[-0.01046605703692718,0.1300372142380551],[0.0021001915552058973,0.2745340730953689],[0.007952327929801882,0.1429508112602714],[-0.04673606736193343,0.1734133252867373],[-0.004699693009849859,-0.1552626701351831],[-0.0664212034809234,-0.10793753152406865],[-0.009086265352405587,0.09254825497443604],[0.0019449189269864992,-0.03656380053910426],[-0.09682678016100682,0.059022167512755505],[-0.021772581883367066,-0.04305933852378826],[-0.01555752953973905,-0.1377095919296073]],[[0.16714686114910246,0.3935404793552774],[-0.04010053708310997,0.05992384313516285],[0.040330338300362985,0.04784062554566515],[0.0006485254918350896,-0.07020051520750223],[0.021801773337082872,-0.09807220302137656],[0.0913943911764381,-0.1377508988468639],[-0.024970269688239632,-0.22463192243750912],[-0.04162633960499173,0.03376878973714423],[0.0031937497893665488,0.04953913749924391],[0.18319257682822143,0.027232184706973722],[0.02138788299751021,0.008905282894068379],[-0.00979811846230873,-0.1270846854664763],[0.025669377515748104,0.07981290171608457],[0.027041512760794476,0.2176966034581861],[-0.056951382395717794,0.08230751928471734],[-0.012259150553041167,-0.11941643500562342],[-0.004581768060528082,0.01933110823127832],[0.024362254502852284,-0.09182263901970263],[0.1380925389697277,-0.21482743104146573],[0.0029770658017605517,0.017644686313833084],[0.013165382585387807,0.04700009638241563],[0.024251809703828855,0.08986258053837663],[-0.002718811019602504,0.23870135102658563],[-0.007321779004584043,0.13002245583964103],[0.027374538714220364,0.15413904602196674],[-0.0006499653395222585,-0.11411217629193995],[0.06949329195428608,-0.08364232605059413],[0.0048548692593325315,0.1385391689614993],[0.002869840686751113,-0.09830756468052765],[0.054773618342984276,0.05816349111221145],[0.003954465572192043,-0.08411126616964319],[-0.009048945714084072,-0.005893792814438199]],[[-0.12761069542502915,0.3663917458134155],[0.037823386466580386,0.17906230423629182],[-0.0025109391288578387,-0.08388263520866791],[0.007810268090398506,-0.11821893998100394],[0.005340627285518521,-0.05411389903456843],[-0.05776913737172834,-0.14052337742862422],[0.012333035647271132,-0.17783988230239248],[0.04808966059513,-0.07236633938041673],[0.050837250896589116,0.025363109354211117],[-0.2843814719439975,-0.10472308756034643],[0.00228688228270151,0.03808153163234256],[-0.009099516283167469,-0.32731667723847047],[-0.004036091910541877,0.0630226274339753],[0.07704196496524203,0.014910541564873406],[0.13171579298524075,0.025986705309907588],[-0.002175050860009143,-0.13985363158982989],[0.011578269733609831,0.00965035321373582],[0.013720205592469335,-0.06851181522778538],[-0.021784232778209553,-0.17205876588729505],[-0.01852643619353055,-0.05590690126098547],[0.00915035511365499,0.008325950163018157],[-0.010682069734730622,0.06515684086790977],[-0.014928461166125584,0.18620832501504347],[0.00611271719015033,0.12488719989100046],[-0.00237361737415799,0.12796488017237706],[-0.018961107914660685,-0.05998526906191963],[-0.040480301215558914,-0.03397061214590086],[0.05200967672015059,0.13041468645579257],[0.0012323349014249532,-0.03788060917620846],[-0.0180668922521516,-0.011494434330112524],[0.009976363100131834,-0.011261537914753154],[0.03733564324901392,0.1384151719061713]],[[0.0033847481355641176,0.21862308771776903],[-0.010682746361319434,0.24091790850641673],[0.011567631754720791,-0.19657941096006987],[-0.0687038513238442,-0.1547048423393428],[0.014314758694330519,-0.04171161277378788],[0.02092439009498368,-0.09418077456108569],[-0.036905606927661844,-0.08041524475542633],[-0.02511435509818025,-0.05721731961003059],[-0.09814801546180112,-0.1505090696019899],[0.2579573376114681,-0.09937317701632185],[-0.017100308032371822,0.04843381181433656],[-0.04160365650140443,-0.33520341018946015],[0.013833950834970061,0.009916946047356675],[-0.05535343498486684,-0.1046432090189664],[-0.14072987211969187,-0.06577774534946508],[-0.02285910010599073,-0.12207462001202303],[-0.0004833121273021981,-0.03215451853393306],[0.006839127304889499,-0.05200638036790535],[-0.03851114385931084,-0.06846242484204262],[0.011789219593032817,-0.03863133031913171],[0.01641406668881828,-0.04216057153291695],[-0.02059155158848613,0.10471398915099159],[-0.009428574781538761,0.1376838691436368],[0.0015628249778253224,0.10347575607202605],[-0.0016555131172769242,0.055666940358383966],[-0.004409393661496484,0.047910552991005884],[-0.010521255285515983,0.08425302815826761],[-0.12245700967378167,0.21060444074215232],[-0.018592748800447697,0.03193777074454003],[-0.09448262273265706,0.006717550230604076],[0.0008638495085090985,0.11647721414867669],[0.012440114783318182,0.22987127013734646]],[[0.01072159447484155,0.001849276387987992],[-0.01616138598843243,0.18598413178528014],[-0.051986742925587186,-0.21100227043436823],[0.16371375960812626,-0.0814073665500428],[-0.01851636888301527,-0.05191970248859052],[0.02168023485716921,-0.07928734042323007],[-0.021659476302289715,0.0027163783179710546],[-0.00837132319560313,-0.03073053104498453],[0.11838744807535924,-0.24460326166383586],[-0.07047715443763436,-0.053224298773133366],[0.0005740009099496548,0.016416810132136042],[-0.0015316044554455964,-0.2941175928070404],[-0.026451601001702445,-0.13755886207528267],[-0.013780332839443384,-0.08488110895336606],[0.06794982914754183,-0.09516561550327751],[-0.011348310115581349,-0.06082240094775221],[-0.0027954113201656703,-0.03333054661499468],[-0.018793380316166307,-0.05649601227275861],[0.07432349064094894,0.09012170609375199],[-0.005180768607444979,0.06301753992440873],[-0.016758832475486027,-0.05323451982122476],[0.053183119207777234,0.18148017090040006],[-0.018807164634405925,0.045464667335115186],[-0.0422287725712723,0.10838244890167162],[-0.02008363642747438,-0.052684966499742795],[0.005411688825263864,0.1973624515866845],[0.037696435783097414,0.14100213492909622],[0.13317028941324016,0.23896622442128407],[0.028097910985529415,0.0544434314540252],[0.15770331091485384,-0.000639258581818701],[-0.0002638977972219764,0.21907981633504311],[-0.01991989217303722,0.24494042017580106]]]},{"Name":"Lncosh","Size":32},{"Inputs":32,"Name":"Sum","Outputs":1}],"Name":"FFNN"}
